digraph Tree {
node [shape=box, style="filled, rounded", color="black", fontname=helvetica] ;
edge [fontname=helvetica] ;
0 [label="X[1] <= 185.6\ngini = 0.93\nsamples = 125\nvalue = [3, 3, 7, 1, 7, 8, 3, 2, 6, 5, 12, 14, 7, 2\n1, 4, 8, 18, 7, 7]\nclass = y[17]", fillcolor="#fef8fb"] ;
1 [label="X[3] <= 91.5\ngini = 0.9\nsamples = 94\nvalue = [3, 2, 4, 1, 7, 8, 3, 0, 6, 0, 12, 14, 0, 2\n1, 0, 8, 16, 7, 0]\nclass = y[17]", fillcolor="#fefafc"] ;
0 -> 1 [labeldistance=2.5, labelangle=45, headlabel="True"] ;
2 [label="X[1] <= 158.95\ngini = 0.72\nsamples = 12\nvalue = [0, 0, 0, 1, 3, 1, 2, 0, 5, 0, 0, 0, 0, 0\n0, 0, 0, 0, 0, 0]\nclass = y[8]", fillcolor="#d3f9f2"] ;
1 -> 2 ;
3 [label="X[5] <= 37.5\ngini = 0.69\nsamples = 7\nvalue = [0, 0, 0, 1, 3, 1, 2, 0, 0, 0, 0, 0, 0, 0\n0, 0, 0, 0, 0, 0]\nclass = y[4]", fillcolor="#e5fad7"] ;
2 -> 3 ;
4 [label="gini = 0.0\nsamples = 3\nvalue = [0, 0, 0, 0, 3, 0, 0, 0, 0, 0, 0, 0, 0, 0\n0, 0, 0, 0, 0, 0]\nclass = y[4]", fillcolor="#7be539"] ;
3 -> 4 ;
5 [label="X[3] <= 84.5\ngini = 0.62\nsamples = 4\nvalue = [0, 0, 0, 1, 0, 1, 2, 0, 0, 0, 0, 0, 0, 0\n0, 0, 0, 0, 0, 0]\nclass = y[6]", fillcolor="#bdf6c9"] ;
3 -> 5 ;
6 [label="gini = 0.0\nsamples = 1\nvalue = [0, 0, 0, 0, 0, 1, 0, 0, 0, 0, 0, 0, 0, 0\n0, 0, 0, 0, 0, 0]\nclass = y[5]", fillcolor="#47e539"] ;
5 -> 6 ;
7 [label="X[1] <= 157.35\ngini = 0.44\nsamples = 3\nvalue = [0, 0, 0, 1, 0, 0, 2, 0, 0, 0, 0, 0, 0, 0\n0, 0, 0, 0, 0, 0]\nclass = y[6]", fillcolor="#9cf2ae"] ;
5 -> 7 ;
8 [label="gini = 0.0\nsamples = 2\nvalue = [0, 0, 0, 0, 0, 0, 2, 0, 0, 0, 0, 0, 0, 0\n0, 0, 0, 0, 0, 0]\nclass = y[6]", fillcolor="#39e55e"] ;
7 -> 8 ;
9 [label="gini = 0.0\nsamples = 1\nvalue = [0, 0, 0, 1, 0, 0, 0, 0, 0, 0, 0, 0, 0, 0\n0, 0, 0, 0, 0, 0]\nclass = y[3]", fillcolor="#aee539"] ;
7 -> 9 ;
10 [label="gini = 0.0\nsamples = 5\nvalue = [0, 0, 0, 0, 0, 0, 0, 0, 5, 0, 0, 0, 0, 0\n0, 0, 0, 0, 0, 0]\nclass = y[8]", fillcolor="#39e5c5"] ;
2 -> 10 ;
11 [label="X[10] <= 0.5\ngini = 0.88\nsamples = 82\nvalue = [3, 2, 4, 0, 4, 7, 1, 0, 1, 0, 12, 14, 0, 2\n1, 0, 8, 16, 7, 0]\nclass = y[17]", fillcolor="#fef9fc"] ;
1 -> 11 ;
12 [label="X[4] <= 71.5\ngini = 0.86\nsamples = 62\nvalue = [0, 2, 0, 0, 4, 7, 0, 0, 0, 0, 12, 12, 0, 0\n1, 0, 8, 9, 7, 0]\nclass = y[10]", fillcolor="#ffffff"] ;
11 -> 12 ;
13 [label="X[2] <= 64.95\ngini = 0.72\nsamples = 24\nvalue = [0, 0, 0, 0, 0, 0, 0, 0, 0, 0, 3, 8, 0, 0\n0, 0, 1, 9, 3, 0]\nclass = y[17]", fillcolor="#fdf3f8"] ;
12 -> 13 ;
14 [label="X[1] <= 158.0\ngini = 0.65\nsamples = 21\nvalue = [0, 0, 0, 0, 0, 0, 0, 0, 0, 0, 3, 8, 0, 0\n0, 0, 1, 9, 0, 0]\nclass = y[17]", fillcolor="#fdf0f6"] ;
13 -> 14 ;
15 [label="X[4] <= 68.5\ngini = 0.38\nsamples = 4\nvalue = [0, 0, 0, 0, 0, 0, 0, 0, 0, 0, 3, 0, 0, 0\n0, 0, 1, 0, 0, 0]\nclass = y[10]", fillcolor="#7bbeee"] ;
14 -> 15 ;
16 [label="gini = 0.0\nsamples = 3\nvalue = [0, 0, 0, 0, 0, 0, 0, 0, 0, 0, 3, 0, 0, 0\n0, 0, 0, 0, 0, 0]\nclass = y[10]", fillcolor="#399de5"] ;
15 -> 16 ;
17 [label="gini = 0.0\nsamples = 1\nvalue = [0, 0, 0, 0, 0, 0, 0, 0, 0, 0, 0, 0, 0, 0\n0, 0, 1, 0, 0, 0]\nclass = y[16]", fillcolor="#e539c0"] ;
15 -> 17 ;
18 [label="X[2] <= 64.1\ngini = 0.5\nsamples = 17\nvalue = [0, 0, 0, 0, 0, 0, 0, 0, 0, 0, 0, 8, 0, 0\n0, 0, 0, 9, 0, 0]\nclass = y[17]", fillcolor="#fce9f2"] ;
14 -> 18 ;
19 [label="X[2] <= 63.7\ngini = 0.44\nsamples = 12\nvalue = [0, 0, 0, 0, 0, 0, 0, 0, 0, 0, 0, 8, 0, 0\n0, 0, 0, 4, 0, 0]\nclass = y[11]", fillcolor="#9cb4f2"] ;
18 -> 19 ;
20 [label="gini = 0.0\nsamples = 4\nvalue = [0, 0, 0, 0, 0, 0, 0, 0, 0, 0, 0, 0, 0, 0\n0, 0, 0, 4, 0, 0]\nclass = y[17]", fillcolor="#e5398c"] ;
19 -> 20 ;
21 [label="gini = 0.0\nsamples = 8\nvalue = [0, 0, 0, 0, 0, 0, 0, 0, 0, 0, 0, 8, 0, 0\n0, 0, 0, 0, 0, 0]\nclass = y[11]", fillcolor="#396ae5"] ;
19 -> 21 ;
22 [label="gini = 0.0\nsamples = 5\nvalue = [0, 0, 0, 0, 0, 0, 0, 0, 0, 0, 0, 0, 0, 0\n0, 0, 0, 5, 0, 0]\nclass = y[17]", fillcolor="#e5398c"] ;
18 -> 22 ;
23 [label="gini = 0.0\nsamples = 3\nvalue = [0, 0, 0, 0, 0, 0, 0, 0, 0, 0, 0, 0, 0, 0\n0, 0, 0, 0, 3, 0]\nclass = y[18]", fillcolor="#e53958"] ;
13 -> 23 ;
24 [label="X[3] <= 108.5\ngini = 0.84\nsamples = 38\nvalue = [0, 2, 0, 0, 4, 7, 0, 0, 0, 0, 9, 4, 0, 0\n1, 0, 7, 0, 4, 0]\nclass = y[10]", fillcolor="#f2f9fd"] ;
12 -> 24 ;
25 [label="X[3] <= 103.0\ngini = 0.64\nsamples = 14\nvalue = [0, 0, 0, 0, 2, 4, 0, 0, 0, 0, 1, 0, 0, 0\n0, 0, 7, 0, 0, 0]\nclass = y[16]", fillcolor="#f7c4ec"] ;
24 -> 25 ;
26 [label="X[5] <= 27.0\ngini = 0.57\nsamples = 7\nvalue = [0, 0, 0, 0, 2, 4, 0, 0, 0, 0, 1, 0, 0, 0\n0, 0, 0, 0, 0, 0]\nclass = y[5]", fillcolor="#b5f5b0"] ;
25 -> 26 ;
27 [label="X[0] <= 3.0\ngini = 0.44\nsamples = 3\nvalue = [0, 0, 0, 0, 2, 0, 0, 0, 0, 0, 1, 0, 0, 0\n0, 0, 0, 0, 0, 0]\nclass = y[4]", fillcolor="#bdf29c"] ;
26 -> 27 ;
28 [label="gini = 0.5\nsamples = 2\nvalue = [0, 0, 0, 0, 1, 0, 0, 0, 0, 0, 1, 0, 0, 0\n0, 0, 0, 0, 0, 0]\nclass = y[4]", fillcolor="#ffffff"] ;
27 -> 28 ;
29 [label="gini = 0.0\nsamples = 1\nvalue = [0, 0, 0, 0, 1, 0, 0, 0, 0, 0, 0, 0, 0, 0\n0, 0, 0, 0, 0, 0]\nclass = y[4]", fillcolor="#7be539"] ;
27 -> 29 ;
30 [label="gini = 0.0\nsamples = 4\nvalue = [0, 0, 0, 0, 0, 4, 0, 0, 0, 0, 0, 0, 0, 0\n0, 0, 0, 0, 0, 0]\nclass = y[5]", fillcolor="#47e539"] ;
26 -> 30 ;
31 [label="gini = 0.0\nsamples = 7\nvalue = [0, 0, 0, 0, 0, 0, 0, 0, 0, 0, 0, 0, 0, 0\n0, 0, 7, 0, 0, 0]\nclass = y[16]", fillcolor="#e539c0"] ;
25 -> 31 ;
32 [label="X[1] <= 173.3\ngini = 0.8\nsamples = 24\nvalue = [0, 2, 0, 0, 2, 3, 0, 0, 0, 0, 8, 4, 0, 0\n1, 0, 0, 0, 4, 0]\nclass = y[10]", fillcolor="#d7ebfa"] ;
24 -> 32 ;
33 [label="X[1] <= 172.05\ngini = 0.57\nsamples = 13\nvalue = [0, 0, 0, 0, 1, 2, 0, 0, 0, 0, 8, 0, 0, 0\n0, 0, 0, 0, 2, 0]\nclass = y[10]", fillcolor="#93caf1"] ;
32 -> 33 ;
34 [label="X[3] <= 109.5\ngini = 0.5\nsamples = 4\nvalue = [0, 0, 0, 0, 0, 2, 0, 0, 0, 0, 0, 0, 0, 0\n0, 0, 0, 0, 2, 0]\nclass = y[5]", fillcolor="#ffffff"] ;
33 -> 34 ;
35 [label="gini = 0.0\nsamples = 2\nvalue = [0, 0, 0, 0, 0, 0, 0, 0, 0, 0, 0, 0, 0, 0\n0, 0, 0, 0, 2, 0]\nclass = y[18]", fillcolor="#e53958"] ;
34 -> 35 ;
36 [label="gini = 0.0\nsamples = 2\nvalue = [0, 0, 0, 0, 0, 2, 0, 0, 0, 0, 0, 0, 0, 0\n0, 0, 0, 0, 0, 0]\nclass = y[5]", fillcolor="#47e539"] ;
34 -> 36 ;
37 [label="X[2] <= 65.85\ngini = 0.2\nsamples = 9\nvalue = [0, 0, 0, 0, 1, 0, 0, 0, 0, 0, 8, 0, 0, 0\n0, 0, 0, 0, 0, 0]\nclass = y[10]", fillcolor="#52a9e8"] ;
33 -> 37 ;
38 [label="gini = 0.0\nsamples = 5\nvalue = [0, 0, 0, 0, 0, 0, 0, 0, 0, 0, 5, 0, 0, 0\n0, 0, 0, 0, 0, 0]\nclass = y[10]", fillcolor="#399de5"] ;
37 -> 38 ;
39 [label="gini = 0.38\nsamples = 4\nvalue = [0, 0, 0, 0, 1, 0, 0, 0, 0, 0, 3, 0, 0, 0\n0, 0, 0, 0, 0, 0]\nclass = y[10]", fillcolor="#7bbeee"] ;
37 -> 39 ;
40 [label="X[2] <= 66.7\ngini = 0.78\nsamples = 11\nvalue = [0, 2, 0, 0, 1, 1, 0, 0, 0, 0, 0, 4, 0, 0\n1, 0, 0, 0, 2, 0]\nclass = y[11]", fillcolor="#d3def9"] ;
32 -> 40 ;
41 [label="X[3] <= 115.0\ngini = 0.69\nsamples = 8\nvalue = [0, 1, 0, 0, 1, 1, 0, 0, 0, 0, 0, 4, 0, 0\n1, 0, 0, 0, 0, 0]\nclass = y[11]", fillcolor="#aabff4"] ;
40 -> 41 ;
42 [label="X[4] <= 101.5\ngini = 0.5\nsamples = 2\nvalue = [0, 1, 0, 0, 0, 1, 0, 0, 0, 0, 0, 0, 0, 0\n0, 0, 0, 0, 0, 0]\nclass = y[1]", fillcolor="#ffffff"] ;
41 -> 42 ;
43 [label="gini = 0.0\nsamples = 1\nvalue = [0, 0, 0, 0, 0, 1, 0, 0, 0, 0, 0, 0, 0, 0\n0, 0, 0, 0, 0, 0]\nclass = y[5]", fillcolor="#47e539"] ;
42 -> 43 ;
44 [label="gini = 0.0\nsamples = 1\nvalue = [0, 1, 0, 0, 0, 0, 0, 0, 0, 0, 0, 0, 0, 0\n0, 0, 0, 0, 0, 0]\nclass = y[1]", fillcolor="#e5b439"] ;
42 -> 44 ;
45 [label="X[2] <= 64.9\ngini = 0.5\nsamples = 6\nvalue = [0, 0, 0, 0, 1, 0, 0, 0, 0, 0, 0, 4, 0, 0\n1, 0, 0, 0, 0, 0]\nclass = y[11]", fillcolor="#88a6ef"] ;
41 -> 45 ;
46 [label="gini = 0.0\nsamples = 1\nvalue = [0, 0, 0, 0, 1, 0, 0, 0, 0, 0, 0, 0, 0, 0\n0, 0, 0, 0, 0, 0]\nclass = y[4]", fillcolor="#7be539"] ;
45 -> 46 ;
47 [label="X[2] <= 65.85\ngini = 0.32\nsamples = 5\nvalue = [0, 0, 0, 0, 0, 0, 0, 0, 0, 0, 0, 4, 0, 0\n1, 0, 0, 0, 0, 0]\nclass = y[11]", fillcolor="#6a8fec"] ;
45 -> 47 ;
48 [label="gini = 0.0\nsamples = 2\nvalue = [0, 0, 0, 0, 0, 0, 0, 0, 0, 0, 0, 2, 0, 0\n0, 0, 0, 0, 0, 0]\nclass = y[11]", fillcolor="#396ae5"] ;
47 -> 48 ;
49 [label="X[3] <= 156.5\ngini = 0.44\nsamples = 3\nvalue = [0, 0, 0, 0, 0, 0, 0, 0, 0, 0, 0, 2, 0, 0\n1, 0, 0, 0, 0, 0]\nclass = y[11]", fillcolor="#9cb4f2"] ;
47 -> 49 ;
50 [label="gini = 0.0\nsamples = 1\nvalue = [0, 0, 0, 0, 0, 0, 0, 0, 0, 0, 0, 0, 0, 0\n1, 0, 0, 0, 0, 0]\nclass = y[14]", fillcolor="#a339e5"] ;
49 -> 50 ;
51 [label="gini = 0.0\nsamples = 2\nvalue = [0, 0, 0, 0, 0, 0, 0, 0, 0, 0, 0, 2, 0, 0\n0, 0, 0, 0, 0, 0]\nclass = y[11]", fillcolor="#396ae5"] ;
49 -> 51 ;
52 [label="X[2] <= 67.4\ngini = 0.44\nsamples = 3\nvalue = [0, 1, 0, 0, 0, 0, 0, 0, 0, 0, 0, 0, 0, 0\n0, 0, 0, 0, 2, 0]\nclass = y[18]", fillcolor="#f29cac"] ;
40 -> 52 ;
53 [label="gini = 0.0\nsamples = 2\nvalue = [0, 0, 0, 0, 0, 0, 0, 0, 0, 0, 0, 0, 0, 0\n0, 0, 0, 0, 2, 0]\nclass = y[18]", fillcolor="#e53958"] ;
52 -> 53 ;
54 [label="gini = 0.0\nsamples = 1\nvalue = [0, 1, 0, 0, 0, 0, 0, 0, 0, 0, 0, 0, 0, 0\n0, 0, 0, 0, 0, 0]\nclass = y[1]", fillcolor="#e5b439"] ;
52 -> 54 ;
55 [label="X[5] <= 23.5\ngini = 0.79\nsamples = 20\nvalue = [3, 0, 4, 0, 0, 0, 1, 0, 1, 0, 0, 2, 0, 2\n0, 0, 0, 7, 0, 0]\nclass = y[17]", fillcolor="#fadae9"] ;
11 -> 55 ;
56 [label="X[3] <= 167.5\ngini = 0.81\nsamples = 14\nvalue = [3, 0, 4, 0, 0, 0, 0, 0, 1, 0, 0, 2, 0, 2\n0, 0, 0, 2, 0, 0]\nclass = y[2]", fillcolor="#fcfded"] ;
55 -> 56 ;
57 [label="X[1] <= 175.9\ngini = 0.59\nsamples = 8\nvalue = [3, 0, 4, 0, 0, 0, 0, 0, 1, 0, 0, 0, 0, 0\n0, 0, 0, 0, 0, 0]\nclass = y[2]", fillcolor="#f9fad7"] ;
56 -> 57 ;
58 [label="X[2] <= 65.8\ngini = 0.38\nsamples = 4\nvalue = [3, 0, 0, 0, 0, 0, 0, 0, 1, 0, 0, 0, 0, 0\n0, 0, 0, 0, 0, 0]\nclass = y[0]", fillcolor="#eeab7b"] ;
57 -> 58 ;
59 [label="gini = 0.0\nsamples = 3\nvalue = [3, 0, 0, 0, 0, 0, 0, 0, 0, 0, 0, 0, 0, 0\n0, 0, 0, 0, 0, 0]\nclass = y[0]", fillcolor="#e58139"] ;
58 -> 59 ;
60 [label="gini = 0.0\nsamples = 1\nvalue = [0, 0, 0, 0, 0, 0, 0, 0, 1, 0, 0, 0, 0, 0\n0, 0, 0, 0, 0, 0]\nclass = y[8]", fillcolor="#39e5c5"] ;
58 -> 60 ;
61 [label="gini = 0.0\nsamples = 4\nvalue = [0, 0, 4, 0, 0, 0, 0, 0, 0, 0, 0, 0, 0, 0\n0, 0, 0, 0, 0, 0]\nclass = y[2]", fillcolor="#e2e539"] ;
57 -> 61 ;
62 [label="X[1] <= 181.0\ngini = 0.67\nsamples = 6\nvalue = [0, 0, 0, 0, 0, 0, 0, 0, 0, 0, 0, 2, 0, 2\n0, 0, 0, 2, 0, 0]\nclass = y[11]", fillcolor="#ffffff"] ;
56 -> 62 ;
63 [label="X[4] <= 203.5\ngini = 0.5\nsamples = 4\nvalue = [0, 0, 0, 0, 0, 0, 0, 0, 0, 0, 0, 2, 0, 2\n0, 0, 0, 0, 0, 0]\nclass = y[11]", fillcolor="#ffffff"] ;
62 -> 63 ;
64 [label="gini = 0.0\nsamples = 2\nvalue = [0, 0, 0, 0, 0, 0, 0, 0, 0, 0, 0, 2, 0, 0\n0, 0, 0, 0, 0, 0]\nclass = y[11]", fillcolor="#396ae5"] ;
63 -> 64 ;
65 [label="gini = 0.0\nsamples = 2\nvalue = [0, 0, 0, 0, 0, 0, 0, 0, 0, 0, 0, 0, 0, 2\n0, 0, 0, 0, 0, 0]\nclass = y[13]", fillcolor="#6f39e5"] ;
63 -> 65 ;
66 [label="gini = 0.0\nsamples = 2\nvalue = [0, 0, 0, 0, 0, 0, 0, 0, 0, 0, 0, 0, 0, 0\n0, 0, 0, 2, 0, 0]\nclass = y[17]", fillcolor="#e5398c"] ;
62 -> 66 ;
67 [label="X[2] <= 62.9\ngini = 0.28\nsamples = 6\nvalue = [0, 0, 0, 0, 0, 0, 1, 0, 0, 0, 0, 0, 0, 0\n0, 0, 0, 5, 0, 0]\nclass = y[17]", fillcolor="#ea61a3"] ;
55 -> 67 ;
68 [label="gini = 0.0\nsamples = 1\nvalue = [0, 0, 0, 0, 0, 0, 1, 0, 0, 0, 0, 0, 0, 0\n0, 0, 0, 0, 0, 0]\nclass = y[6]", fillcolor="#39e55e"] ;
67 -> 68 ;
69 [label="gini = 0.0\nsamples = 5\nvalue = [0, 0, 0, 0, 0, 0, 0, 0, 0, 0, 0, 0, 0, 0\n0, 0, 0, 5, 0, 0]\nclass = y[17]", fillcolor="#e5398c"] ;
67 -> 69 ;
70 [label="X[4] <= 103.5\ngini = 0.84\nsamples = 31\nvalue = [0, 1, 3, 0, 0, 0, 0, 2, 0, 5, 0, 0, 7, 0\n0, 4, 0, 2, 0, 7]\nclass = y[12]", fillcolor="#ffffff"] ;
0 -> 70 [labeldistance=2.5, labelangle=-45, headlabel="False"] ;
71 [label="gini = 0.0\nsamples = 6\nvalue = [0, 0, 0, 0, 0, 0, 0, 0, 0, 0, 0, 0, 6, 0\n0, 0, 0, 0, 0, 0]\nclass = y[12]", fillcolor="#3c39e5"] ;
70 -> 71 ;
72 [label="X[1] <= 188.9\ngini = 0.83\nsamples = 25\nvalue = [0, 1, 3, 0, 0, 0, 0, 2, 0, 5, 0, 0, 1, 0\n0, 4, 0, 2, 0, 7]\nclass = y[19]", fillcolor="#fcedeb"] ;
70 -> 72 ;
73 [label="X[1] <= 188.3\ngini = 0.64\nsamples = 14\nvalue = [0, 0, 0, 0, 0, 0, 0, 0, 0, 0, 0, 0, 1, 0\n0, 4, 0, 2, 0, 7]\nclass = y[19]", fillcolor="#f7cac4"] ;
72 -> 73 ;
74 [label="X[1] <= 186.65\ngini = 0.57\nsamples = 7\nvalue = [0, 0, 0, 0, 0, 0, 0, 0, 0, 0, 0, 0, 1, 0\n0, 4, 0, 2, 0, 0]\nclass = y[15]", fillcolor="#efb0f5"] ;
73 -> 74 ;
75 [label="gini = 0.0\nsamples = 4\nvalue = [0, 0, 0, 0, 0, 0, 0, 0, 0, 0, 0, 0, 0, 0\n0, 4, 0, 0, 0, 0]\nclass = y[15]", fillcolor="#d739e5"] ;
74 -> 75 ;
76 [label="X[7] <= 0.5\ngini = 0.44\nsamples = 3\nvalue = [0, 0, 0, 0, 0, 0, 0, 0, 0, 0, 0, 0, 1, 0\n0, 0, 0, 2, 0, 0]\nclass = y[17]", fillcolor="#f29cc6"] ;
74 -> 76 ;
77 [label="gini = 0.0\nsamples = 2\nvalue = [0, 0, 0, 0, 0, 0, 0, 0, 0, 0, 0, 0, 0, 0\n0, 0, 0, 2, 0, 0]\nclass = y[17]", fillcolor="#e5398c"] ;
76 -> 77 ;
78 [label="gini = 0.0\nsamples = 1\nvalue = [0, 0, 0, 0, 0, 0, 0, 0, 0, 0, 0, 0, 1, 0\n0, 0, 0, 0, 0, 0]\nclass = y[12]", fillcolor="#3c39e5"] ;
76 -> 78 ;
79 [label="gini = 0.0\nsamples = 7\nvalue = [0, 0, 0, 0, 0, 0, 0, 0, 0, 0, 0, 0, 0, 0\n0, 0, 0, 0, 0, 7]\nclass = y[19]", fillcolor="#e54d39"] ;
73 -> 79 ;
80 [label="X[2] <= 68.25\ngini = 0.68\nsamples = 11\nvalue = [0, 1, 3, 0, 0, 0, 0, 2, 0, 5, 0, 0, 0, 0\n0, 0, 0, 0, 0, 0]\nclass = y[9]", fillcolor="#cef4f8"] ;
72 -> 80 ;
81 [label="gini = 0.0\nsamples = 2\nvalue = [0, 0, 2, 0, 0, 0, 0, 0, 0, 0, 0, 0, 0, 0\n0, 0, 0, 0, 0, 0]\nclass = y[2]", fillcolor="#e2e539"] ;
80 -> 81 ;
82 [label="X[9] <= 0.5\ngini = 0.62\nsamples = 9\nvalue = [0, 1, 1, 0, 0, 0, 0, 2, 0, 5, 0, 0, 0, 0\n0, 0, 0, 0, 0, 0]\nclass = y[9]", fillcolor="#aaebf4"] ;
80 -> 82 ;
83 [label="X[5] <= 13.5\ngini = 0.53\nsamples = 8\nvalue = [0, 0, 1, 0, 0, 0, 0, 2, 0, 5, 0, 0, 0, 0\n0, 0, 0, 0, 0, 0]\nclass = y[9]", fillcolor="#9ce8f2"] ;
82 -> 83 ;
84 [label="gini = 0.0\nsamples = 1\nvalue = [0, 0, 0, 0, 0, 0, 0, 1, 0, 0, 0, 0, 0, 0\n0, 0, 0, 0, 0, 0]\nclass = y[7]", fillcolor="#39e592"] ;
83 -> 84 ;
85 [label="X[2] <= 69.95\ngini = 0.45\nsamples = 7\nvalue = [0, 0, 1, 0, 0, 0, 0, 1, 0, 5, 0, 0, 0, 0\n0, 0, 0, 0, 0, 0]\nclass = y[9]", fillcolor="#7be0ee"] ;
83 -> 85 ;
86 [label="gini = 0.0\nsamples = 1\nvalue = [0, 0, 0, 0, 0, 0, 0, 1, 0, 0, 0, 0, 0, 0\n0, 0, 0, 0, 0, 0]\nclass = y[7]", fillcolor="#39e592"] ;
85 -> 86 ;
87 [label="X[1] <= 198.1\ngini = 0.28\nsamples = 6\nvalue = [0, 0, 1, 0, 0, 0, 0, 0, 0, 5, 0, 0, 0, 0\n0, 0, 0, 0, 0, 0]\nclass = y[9]", fillcolor="#61daea"] ;
85 -> 87 ;
88 [label="X[11] <= 0.5\ngini = 0.44\nsamples = 3\nvalue = [0, 0, 1, 0, 0, 0, 0, 0, 0, 2, 0, 0, 0, 0\n0, 0, 0, 0, 0, 0]\nclass = y[9]", fillcolor="#9ce8f2"] ;
87 -> 88 ;
89 [label="gini = 0.0\nsamples = 1\nvalue = [0, 0, 1, 0, 0, 0, 0, 0, 0, 0, 0, 0, 0, 0\n0, 0, 0, 0, 0, 0]\nclass = y[2]", fillcolor="#e2e539"] ;
88 -> 89 ;
90 [label="gini = 0.0\nsamples = 2\nvalue = [0, 0, 0, 0, 0, 0, 0, 0, 0, 2, 0, 0, 0, 0\n0, 0, 0, 0, 0, 0]\nclass = y[9]", fillcolor="#39d1e5"] ;
88 -> 90 ;
91 [label="gini = 0.0\nsamples = 3\nvalue = [0, 0, 0, 0, 0, 0, 0, 0, 0, 3, 0, 0, 0, 0\n0, 0, 0, 0, 0, 0]\nclass = y[9]", fillcolor="#39d1e5"] ;
87 -> 91 ;
92 [label="gini = 0.0\nsamples = 1\nvalue = [0, 1, 0, 0, 0, 0, 0, 0, 0, 0, 0, 0, 0, 0\n0, 0, 0, 0, 0, 0]\nclass = y[1]", fillcolor="#e5b439"] ;
82 -> 92 ;
}