digraph Tree {
node [shape=box, style="filled, rounded", color="black", fontname=helvetica] ;
edge [fontname=helvetica] ;
0 [label="X[4] <= 85.0\ngini = 0.95\nsamples = 57\nvalue = [1, 1, 2, 1, 3, 6, 1, 2, 1, 1, 4, 2, 1, 3\n3, 2, 2, 1, 3, 2, 2, 5, 2, 2, 1, 1, 1, 1]\nclass = y[5]", fillcolor="#fdfefb"] ;
1 [label="X[3] <= 116.5\ngini = 0.84\nsamples = 20\nvalue = [0, 1, 0, 0, 3, 6, 0, 0, 0, 1, 0, 0, 0, 0\n0, 1, 2, 1, 3, 0, 0, 0, 2, 0, 0, 0, 0, 0]\nclass = y[5]", fillcolor="#ecfadc"] ;
0 -> 1 [labeldistance=2.5, labelangle=45, headlabel="True"] ;
2 [label="X[1] <= 169.7\ngini = 0.85\nsamples = 14\nvalue = [0, 1, 0, 0, 3, 0, 0, 0, 0, 1, 0, 0, 0, 0\n0, 1, 2, 1, 3, 0, 0, 0, 2, 0, 0, 0, 0, 0]\nclass = y[4]", fillcolor="#ffffff"] ;
1 -> 2 ;
3 [label="X[5] <= 30.0\ngini = 0.38\nsamples = 4\nvalue = [0, 0, 0, 0, 0, 0, 0, 0, 0, 1, 0, 0, 0, 0\n0, 0, 0, 0, 3, 0, 0, 0, 0, 0, 0, 0, 0, 0]\nclass = y[18]", fillcolor="#9a7bee"] ;
2 -> 3 ;
4 [label="gini = 0.0\nsamples = 3\nvalue = [0, 0, 0, 0, 0, 0, 0, 0, 0, 0, 0, 0, 0, 0\n0, 0, 0, 0, 3, 0, 0, 0, 0, 0, 0, 0, 0, 0]\nclass = y[18]", fillcolor="#6739e5"] ;
3 -> 4 ;
5 [label="gini = 0.0\nsamples = 1\nvalue = [0, 0, 0, 0, 0, 0, 0, 0, 0, 1, 0, 0, 0, 0\n0, 0, 0, 0, 0, 0, 0, 0, 0, 0, 0, 0, 0, 0]\nclass = y[9]", fillcolor="#39e572"] ;
3 -> 5 ;
6 [label="X[5] <= 25.0\ngini = 0.8\nsamples = 10\nvalue = [0, 1, 0, 0, 3, 0, 0, 0, 0, 0, 0, 0, 0, 0\n0, 1, 2, 1, 0, 0, 0, 0, 2, 0, 0, 0, 0, 0]\nclass = y[4]", fillcolor="#f6fce6"] ;
2 -> 6 ;
7 [label="X[2] <= 64.5\ngini = 0.38\nsamples = 4\nvalue = [0, 0, 0, 0, 3, 0, 0, 0, 0, 0, 0, 0, 0, 0\n0, 0, 0, 1, 0, 0, 0, 0, 0, 0, 0, 0, 0, 0]\nclass = y[4]", fillcolor="#cfee7b"] ;
6 -> 7 ;
8 [label="gini = 0.0\nsamples = 3\nvalue = [0, 0, 0, 0, 3, 0, 0, 0, 0, 0, 0, 0, 0, 0\n0, 0, 0, 0, 0, 0, 0, 0, 0, 0, 0, 0, 0, 0]\nclass = y[4]", fillcolor="#b7e539"] ;
7 -> 8 ;
9 [label="gini = 0.0\nsamples = 1\nvalue = [0, 0, 0, 0, 0, 0, 0, 0, 0, 0, 0, 0, 0, 0\n0, 0, 0, 1, 0, 0, 0, 0, 0, 0, 0, 0, 0, 0]\nclass = y[17]", fillcolor="#4139e5"] ;
7 -> 9 ;
10 [label="X[11] <= 0.5\ngini = 0.72\nsamples = 6\nvalue = [0, 1, 0, 0, 0, 0, 0, 0, 0, 0, 0, 0, 0, 0\n0, 1, 2, 0, 0, 0, 0, 0, 2, 0, 0, 0, 0, 0]\nclass = y[16]", fillcolor="#ffffff"] ;
6 -> 10 ;
11 [label="X[1] <= 174.7\ngini = 0.62\nsamples = 4\nvalue = [0, 1, 0, 0, 0, 0, 0, 0, 0, 0, 0, 0, 0, 0\n0, 1, 2, 0, 0, 0, 0, 0, 0, 0, 0, 0, 0, 0]\nclass = y[16]", fillcolor="#bdc7f6"] ;
10 -> 11 ;
12 [label="gini = 0.0\nsamples = 2\nvalue = [0, 0, 0, 0, 0, 0, 0, 0, 0, 0, 0, 0, 0, 0\n0, 0, 2, 0, 0, 0, 0, 0, 0, 0, 0, 0, 0, 0]\nclass = y[16]", fillcolor="#3956e5"] ;
11 -> 12 ;
13 [label="X[3] <= 99.0\ngini = 0.5\nsamples = 2\nvalue = [0, 1, 0, 0, 0, 0, 0, 0, 0, 0, 0, 0, 0, 0\n0, 1, 0, 0, 0, 0, 0, 0, 0, 0, 0, 0, 0, 0]\nclass = y[1]", fillcolor="#ffffff"] ;
11 -> 13 ;
14 [label="gini = 0.0\nsamples = 1\nvalue = [0, 1, 0, 0, 0, 0, 0, 0, 0, 0, 0, 0, 0, 0\n0, 0, 0, 0, 0, 0, 0, 0, 0, 0, 0, 0, 0, 0]\nclass = y[1]", fillcolor="#e5a339"] ;
13 -> 14 ;
15 [label="gini = 0.0\nsamples = 1\nvalue = [0, 0, 0, 0, 0, 0, 0, 0, 0, 0, 0, 0, 0, 0\n0, 1, 0, 0, 0, 0, 0, 0, 0, 0, 0, 0, 0, 0]\nclass = y[15]", fillcolor="#397be5"] ;
13 -> 15 ;
16 [label="gini = 0.0\nsamples = 2\nvalue = [0, 0, 0, 0, 0, 0, 0, 0, 0, 0, 0, 0, 0, 0\n0, 0, 0, 0, 0, 0, 0, 0, 2, 0, 0, 0, 0, 0]\nclass = y[22]", fillcolor="#e539d1"] ;
10 -> 16 ;
17 [label="gini = 0.0\nsamples = 6\nvalue = [0, 0, 0, 0, 0, 6, 0, 0, 0, 0, 0, 0, 0, 0\n0, 0, 0, 0, 0, 0, 0, 0, 0, 0, 0, 0, 0, 0]\nclass = y[5]", fillcolor="#92e539"] ;
1 -> 17 ;
18 [label="X[4] <= 90.5\ngini = 0.93\nsamples = 37\nvalue = [1, 0, 2, 1, 0, 0, 1, 2, 1, 0, 4, 2, 1, 3\n3, 1, 0, 0, 0, 2, 2, 5, 0, 2, 1, 1, 1, 1]\nclass = y[21]", fillcolor="#fef9fe"] ;
0 -> 18 [labeldistance=2.5, labelangle=-45, headlabel="False"] ;
19 [label="X[4] <= 89.5\ngini = 0.69\nsamples = 9\nvalue = [0, 0, 2, 0, 0, 0, 0, 2, 0, 0, 4, 0, 0, 0\n0, 1, 0, 0, 0, 0, 0, 0, 0, 0, 0, 0, 0, 0]\nclass = y[10]", fillcolor="#c6f8e2"] ;
18 -> 19 ;
20 [label="X[0] <= 3.0\ngini = 0.64\nsamples = 5\nvalue = [0, 0, 2, 0, 0, 0, 0, 2, 0, 0, 0, 0, 0, 0\n0, 1, 0, 0, 0, 0, 0, 0, 0, 0, 0, 0, 0, 0]\nclass = y[2]", fillcolor="#ffffff"] ;
19 -> 20 ;
21 [label="X[2] <= 64.3\ngini = 0.44\nsamples = 3\nvalue = [0, 0, 2, 0, 0, 0, 0, 0, 0, 0, 0, 0, 0, 0\n0, 1, 0, 0, 0, 0, 0, 0, 0, 0, 0, 0, 0, 0]\nclass = y[2]", fillcolor="#f2e49c"] ;
20 -> 21 ;
22 [label="gini = 0.0\nsamples = 1\nvalue = [0, 0, 0, 0, 0, 0, 0, 0, 0, 0, 0, 0, 0, 0\n0, 1, 0, 0, 0, 0, 0, 0, 0, 0, 0, 0, 0, 0]\nclass = y[15]", fillcolor="#397be5"] ;
21 -> 22 ;
23 [label="gini = 0.0\nsamples = 2\nvalue = [0, 0, 2, 0, 0, 0, 0, 0, 0, 0, 0, 0, 0, 0\n0, 0, 0, 0, 0, 0, 0, 0, 0, 0, 0, 0, 0, 0]\nclass = y[2]", fillcolor="#e5c839"] ;
21 -> 23 ;
24 [label="gini = 0.0\nsamples = 2\nvalue = [0, 0, 0, 0, 0, 0, 0, 2, 0, 0, 0, 0, 0, 0\n0, 0, 0, 0, 0, 0, 0, 0, 0, 0, 0, 0, 0, 0]\nclass = y[7]", fillcolor="#47e539"] ;
20 -> 24 ;
25 [label="gini = 0.0\nsamples = 4\nvalue = [0, 0, 0, 0, 0, 0, 0, 0, 0, 0, 4, 0, 0, 0\n0, 0, 0, 0, 0, 0, 0, 0, 0, 0, 0, 0, 0, 0]\nclass = y[10]", fillcolor="#39e598"] ;
19 -> 25 ;
26 [label="X[2] <= 65.8\ngini = 0.91\nsamples = 28\nvalue = [1, 0, 0, 1, 0, 0, 1, 0, 1, 0, 0, 2, 1, 3\n3, 0, 0, 0, 0, 2, 2, 5, 0, 2, 1, 1, 1, 1]\nclass = y[21]", fillcolor="#fceffd"] ;
18 -> 26 ;
27 [label="X[2] <= 65.55\ngini = 0.53\nsamples = 8\nvalue = [0, 0, 0, 0, 0, 0, 0, 0, 1, 0, 0, 0, 0, 0\n0, 0, 0, 0, 0, 0, 0, 5, 0, 2, 0, 0, 0, 0]\nclass = y[21]", fillcolor="#eb9cf2"] ;
26 -> 27 ;
28 [label="X[7] <= 0.5\ngini = 0.44\nsamples = 3\nvalue = [0, 0, 0, 0, 0, 0, 0, 0, 1, 0, 0, 0, 0, 0\n0, 0, 0, 0, 0, 0, 0, 0, 0, 2, 0, 0, 0, 0]\nclass = y[23]", fillcolor="#f29cd6"] ;
27 -> 28 ;
29 [label="gini = 0.0\nsamples = 2\nvalue = [0, 0, 0, 0, 0, 0, 0, 0, 0, 0, 0, 0, 0, 0\n0, 0, 0, 0, 0, 0, 0, 0, 0, 2, 0, 0, 0, 0]\nclass = y[23]", fillcolor="#e539ac"] ;
28 -> 29 ;
30 [label="gini = 0.0\nsamples = 1\nvalue = [0, 0, 0, 0, 0, 0, 0, 0, 1, 0, 0, 0, 0, 0\n0, 0, 0, 0, 0, 0, 0, 0, 0, 0, 0, 0, 0, 0]\nclass = y[8]", fillcolor="#39e54d"] ;
28 -> 30 ;
31 [label="gini = 0.0\nsamples = 5\nvalue = [0, 0, 0, 0, 0, 0, 0, 0, 0, 0, 0, 0, 0, 0\n0, 0, 0, 0, 0, 0, 0, 5, 0, 0, 0, 0, 0, 0]\nclass = y[21]", fillcolor="#d739e5"] ;
27 -> 31 ;
32 [label="X[3] <= 100.0\ngini = 0.9\nsamples = 20\nvalue = [1, 0, 0, 1, 0, 0, 1, 0, 0, 0, 0, 2, 1, 3\n3, 0, 0, 0, 0, 2, 2, 0, 0, 0, 1, 1, 1, 1]\nclass = y[13]", fillcolor="#ffffff"] ;
26 -> 32 ;
33 [label="gini = 0.0\nsamples = 2\nvalue = [0, 0, 0, 0, 0, 0, 0, 0, 0, 0, 0, 0, 0, 0\n0, 0, 0, 0, 0, 0, 2, 0, 0, 0, 0, 0, 0, 0]\nclass = y[20]", fillcolor="#b139e5"] ;
32 -> 33 ;
34 [label="X[4] <= 91.5\ngini = 0.9\nsamples = 18\nvalue = [1, 0, 0, 1, 0, 0, 1, 0, 0, 0, 0, 2, 1, 3\n3, 0, 0, 0, 0, 2, 0, 0, 0, 0, 1, 1, 1, 1]\nclass = y[13]", fillcolor="#ffffff"] ;
32 -> 34 ;
35 [label="gini = 0.0\nsamples = 2\nvalue = [0, 0, 0, 0, 0, 0, 0, 0, 0, 0, 0, 2, 0, 0\n0, 0, 0, 0, 0, 0, 0, 0, 0, 0, 0, 0, 0, 0]\nclass = y[11]", fillcolor="#39e5bd"] ;
34 -> 35 ;
36 [label="X[4] <= 98.5\ngini = 0.88\nsamples = 16\nvalue = [1, 0, 0, 1, 0, 0, 1, 0, 0, 0, 0, 0, 1, 3\n3, 0, 0, 0, 0, 2, 0, 0, 0, 0, 1, 1, 1, 1]\nclass = y[13]", fillcolor="#ffffff"] ;
34 -> 36 ;
37 [label="X[1] <= 177.9\ngini = 0.69\nsamples = 8\nvalue = [0, 0, 0, 1, 0, 0, 0, 0, 0, 0, 0, 0, 1, 3\n3, 0, 0, 0, 0, 0, 0, 0, 0, 0, 0, 0, 0, 0]\nclass = y[13]", fillcolor="#ffffff"] ;
36 -> 37 ;
38 [label="gini = 0.5\nsamples = 2\nvalue = [0, 0, 0, 1, 0, 0, 0, 0, 0, 0, 0, 0, 1, 0\n0, 0, 0, 0, 0, 0, 0, 0, 0, 0, 0, 0, 0, 0]\nclass = y[3]", fillcolor="#ffffff"] ;
37 -> 38 ;
39 [label="gini = 0.5\nsamples = 6\nvalue = [0, 0, 0, 0, 0, 0, 0, 0, 0, 0, 0, 0, 0, 3\n3, 0, 0, 0, 0, 0, 0, 0, 0, 0, 0, 0, 0, 0]\nclass = y[13]", fillcolor="#ffffff"] ;
37 -> 39 ;
40 [label="X[1] <= 176.1\ngini = 0.84\nsamples = 8\nvalue = [1, 0, 0, 0, 0, 0, 1, 0, 0, 0, 0, 0, 0, 0\n0, 0, 0, 0, 0, 2, 0, 0, 0, 0, 1, 1, 1, 1]\nclass = y[19]", fillcolor="#efe3fb"] ;
36 -> 40 ;
41 [label="gini = 0.0\nsamples = 2\nvalue = [0, 0, 0, 0, 0, 0, 0, 0, 0, 0, 0, 0, 0, 0\n0, 0, 0, 0, 0, 2, 0, 0, 0, 0, 0, 0, 0, 0]\nclass = y[19]", fillcolor="#8c39e5"] ;
40 -> 41 ;
42 [label="gini = 0.83\nsamples = 6\nvalue = [1, 0, 0, 0, 0, 0, 1, 0, 0, 0, 0, 0, 0, 0\n0, 0, 0, 0, 0, 0, 0, 0, 0, 0, 1, 1, 1, 1]\nclass = y[0]", fillcolor="#ffffff"] ;
40 -> 42 ;
}