digraph Tree {
node [shape=box, style="filled, rounded", color="black", fontname=helvetica] ;
edge [fontname=helvetica] ;
0 [label="X[4] <= 35.5\ngini = 0.92\nsamples = 32\nvalue = [1, 1, 1, 2, 1, 2, 3, 2, 2, 1, 1, 1, 2, 1\n4, 5, 2]\nclass = y[15]", fillcolor="#fef8fa"] ;
1 [label="X[5] <= 30701.5\ngini = 0.91\nsamples = 24\nvalue = [1, 1, 1, 2, 1, 1, 3, 0, 2, 1, 1, 1, 2, 1\n4, 0, 2]\nclass = y[14]", fillcolor="#fef6fb"] ;
0 -> 1 [labeldistance=2.5, labelangle=45, headlabel="True"] ;
2 [label="X[4] <= 28.5\ngini = 0.9\nsamples = 16\nvalue = [1, 1, 1, 2, 1, 1, 3, 0, 2, 1, 1, 1, 0, 1\n0, 0, 0]\nclass = y[6]", fillcolor="#f1fdf7"] ;
1 -> 2 ;
3 [label="X[3] <= 89.0\ngini = 0.38\nsamples = 4\nvalue = [0, 0, 0, 0, 0, 0, 3, 0, 0, 0, 0, 1, 0, 0\n0, 0, 0]\nclass = y[6]", fillcolor="#7beeb8"] ;
2 -> 3 ;
4 [label="gini = 0.0\nsamples = 3\nvalue = [0, 0, 0, 0, 0, 0, 3, 0, 0, 0, 0, 0, 0, 0\n0, 0, 0]\nclass = y[6]", fillcolor="#39e595"] ;
3 -> 4 ;
5 [label="gini = 0.0\nsamples = 1\nvalue = [0, 0, 0, 0, 0, 0, 0, 0, 0, 0, 0, 1, 0, 0\n0, 0, 0]\nclass = y[11]", fillcolor="#6a39e5"] ;
3 -> 5 ;
6 [label="X[4] <= 34.5\ngini = 0.89\nsamples = 12\nvalue = [1, 1, 1, 2, 1, 1, 0, 0, 2, 1, 1, 0, 0, 1\n0, 0, 0]\nclass = y[3]", fillcolor="#ffffff"] ;
2 -> 6 ;
7 [label="X[5] <= 27749.0\ngini = 0.88\nsamples = 10\nvalue = [1, 1, 1, 2, 1, 1, 0, 0, 0, 1, 1, 0, 0, 1\n0, 0, 0]\nclass = y[3]", fillcolor="#f3fce9"] ;
6 -> 7 ;
8 [label="X[7] <= 0.5\ngini = 0.86\nsamples = 7\nvalue = [1, 1, 1, 0, 0, 1, 0, 0, 0, 1, 1, 0, 0, 1\n0, 0, 0]\nclass = y[0]", fillcolor="#ffffff"] ;
7 -> 8 ;
9 [label="gini = 0.75\nsamples = 4\nvalue = [0, 1, 1, 0, 0, 1, 0, 0, 0, 0, 1, 0, 0, 0\n0, 0, 0]\nclass = y[1]", fillcolor="#ffffff"] ;
8 -> 9 ;
10 [label="gini = 0.67\nsamples = 3\nvalue = [1, 0, 0, 0, 0, 0, 0, 0, 0, 1, 0, 0, 0, 1\n0, 0, 0]\nclass = y[0]", fillcolor="#ffffff"] ;
8 -> 10 ;
11 [label="X[4] <= 32.0\ngini = 0.44\nsamples = 3\nvalue = [0, 0, 0, 2, 1, 0, 0, 0, 0, 0, 0, 0, 0, 0\n0, 0, 0]\nclass = y[3]", fillcolor="#caf29c"] ;
7 -> 11 ;
12 [label="gini = 0.0\nsamples = 1\nvalue = [0, 0, 0, 0, 1, 0, 0, 0, 0, 0, 0, 0, 0, 0\n0, 0, 0]\nclass = y[4]", fillcolor="#58e539"] ;
11 -> 12 ;
13 [label="gini = 0.0\nsamples = 2\nvalue = [0, 0, 0, 2, 0, 0, 0, 0, 0, 0, 0, 0, 0, 0\n0, 0, 0]\nclass = y[3]", fillcolor="#95e539"] ;
11 -> 13 ;
14 [label="gini = 0.0\nsamples = 2\nvalue = [0, 0, 0, 0, 0, 0, 0, 0, 2, 0, 0, 0, 0, 0\n0, 0, 0]\nclass = y[8]", fillcolor="#39bde5"] ;
6 -> 14 ;
15 [label="X[2] <= 102.0\ngini = 0.62\nsamples = 8\nvalue = [0, 0, 0, 0, 0, 0, 0, 0, 0, 0, 0, 0, 2, 0\n4, 0, 2]\nclass = y[14]", fillcolor="#f6bde2"] ;
1 -> 15 ;
16 [label="gini = 0.0\nsamples = 4\nvalue = [0, 0, 0, 0, 0, 0, 0, 0, 0, 0, 0, 0, 0, 0\n4, 0, 0]\nclass = y[14]", fillcolor="#e539a9"] ;
15 -> 16 ;
17 [label="X[5] <= 36089.0\ngini = 0.5\nsamples = 4\nvalue = [0, 0, 0, 0, 0, 0, 0, 0, 0, 0, 0, 0, 2, 0\n0, 0, 2]\nclass = y[12]", fillcolor="#ffffff"] ;
15 -> 17 ;
18 [label="gini = 0.0\nsamples = 2\nvalue = [0, 0, 0, 0, 0, 0, 0, 0, 0, 0, 0, 0, 0, 0\n0, 0, 2]\nclass = y[16]", fillcolor="#e54139"] ;
17 -> 18 ;
19 [label="gini = 0.0\nsamples = 2\nvalue = [0, 0, 0, 0, 0, 0, 0, 0, 0, 0, 0, 0, 2, 0\n0, 0, 0]\nclass = y[12]", fillcolor="#a939e5"] ;
17 -> 19 ;
20 [label="X[1] <= 2009.5\ngini = 0.53\nsamples = 8\nvalue = [0, 0, 0, 0, 0, 1, 0, 2, 0, 0, 0, 0, 0, 0\n0, 5, 0]\nclass = y[15]", fillcolor="#f29cb6"] ;
0 -> 20 [labeldistance=2.5, labelangle=-45, headlabel="False"] ;
21 [label="X[2] <= 94.5\ngini = 0.44\nsamples = 3\nvalue = [0, 0, 0, 0, 0, 1, 0, 2, 0, 0, 0, 0, 0, 0\n0, 0, 0]\nclass = y[7]", fillcolor="#9cf2e8"] ;
20 -> 21 ;
22 [label="gini = 0.0\nsamples = 1\nvalue = [0, 0, 0, 0, 0, 1, 0, 0, 0, 0, 0, 0, 0, 0\n0, 0, 0]\nclass = y[5]", fillcolor="#39e556"] ;
21 -> 22 ;
23 [label="gini = 0.0\nsamples = 2\nvalue = [0, 0, 0, 0, 0, 0, 0, 2, 0, 0, 0, 0, 0, 0\n0, 0, 0]\nclass = y[7]", fillcolor="#39e5d1"] ;
21 -> 23 ;
24 [label="gini = 0.0\nsamples = 5\nvalue = [0, 0, 0, 0, 0, 0, 0, 0, 0, 0, 0, 0, 0, 0\n0, 5, 0]\nclass = y[15]", fillcolor="#e5396d"] ;
20 -> 24 ;
}